FANN_FLO_2.1
num_layers=7
learning_rate=0.350000
connection_rate=1.000000
network_type=1
learning_momentum=0.000000
training_algorithm=2
train_error_function=0
train_stop_function=1
cascade_output_change_fraction=0.010000
quickprop_decay=-0.000100
quickprop_mu=1.750000
rprop_increase_factor=1.200000
rprop_decrease_factor=0.500000
rprop_delta_min=0.000000
rprop_delta_max=50.000000
rprop_delta_zero=0.100000
cascade_output_stagnation_epochs=12
cascade_candidate_change_fraction=0.010000
cascade_candidate_stagnation_epochs=12
cascade_max_out_epochs=150
cascade_min_out_epochs=50
cascade_max_cand_epochs=150
cascade_min_cand_epochs=50
cascade_num_candidate_groups=8
bit_fail_limit=8.99999976158142090000e-001
cascade_candidate_limit=1.00000000000000000000e+003
cascade_weight_multiplier=4.00000005960464480000e-001
cascade_activation_functions_count=1
cascade_activation_functions=5 
cascade_activation_steepnesses_count=1
cascade_activation_steepnesses=1.00000000000000000000e+000 
layer_sizes=9 1 1 1 1 1 1 
scale_included=0
neurons (num_inputs, activation_function, activation_steepness)=(0, 0, 0.00000000000000000000e+000) (0, 0, 0.00000000000000000000e+000) (0, 0, 0.00000000000000000000e+000) (0, 0, 0.00000000000000000000e+000) (0, 0, 0.00000000000000000000e+000) (0, 0, 0.00000000000000000000e+000) (0, 0, 0.00000000000000000000e+000) (0, 0, 0.00000000000000000000e+000) (0, 0, 0.00000000000000000000e+000) (9, 5, 1.00000000000000000000e+000) (10, 5, 1.00000000000000000000e+000) (11, 5, 1.00000000000000000000e+000) (12, 5, 1.00000000000000000000e+000) (13, 5, 1.00000000000000000000e+000) (14, 0, 5.00000000000000000000e-001) 
connections (connected_to_neuron, weight)=(0, 1.78382050991058350000e+000) (1, 1.78384757041931150000e+000) (2, 1.78344047069549560000e+000) (3, 1.78432667255401610000e+000) (4, 1.78457129001617430000e+000) (5, 1.78400278091430660000e+000) (6, 1.78550648689270020000e+000) (7, 1.78342354297637940000e+000) (8, -1.78381419181823730000e+000) (0, -1.56356394290924070000e+000) (1, -1.56332719326019290000e+000) (2, -1.56292283535003660000e+000) (3, -1.56462073326110840000e+000) (4, -1.56572365760803220000e+000) (5, -1.56412279605865480000e+000) (6, -1.56453406810760500000e+000) (7, -1.56388127803802490000e+000) (8, 1.56550574302673340000e+000) (9, 2.83154678344726560000e+000) (0, 1.19105970859527590000e+000) (1, 1.19150674343109130000e+000) (2, 1.19326817989349370000e+000) (3, 1.18567168712615970000e+000) (4, 1.18031299114227290000e+000) (5, 1.18641650676727290000e+000) (6, 1.18609213829040530000e+000) (7, 1.18320608139038090000e+000) (8, -1.18339061737060550000e+000) (9, -2.59516787528991700000e+000) (10, 1.57375478744506840000e+000) (0, 7.05169200897216800000e-001) (1, 7.07069635391235350000e-001) (2, 6.95132374763488770000e-001) (3, 6.89056873321533200000e-001) (4, 6.83466911315917970000e-001) (5, 6.89377784729003910000e-001) (6, 6.89793646335601810000e-001) (7, 6.87211215496063230000e-001) (8, -6.75872981548309330000e-001) (9, -1.61471915245056150000e+000) (10, 1.05058431625366210000e+000) (11, -1.09832298755645750000e+000) (0, 1.41730284690856930000e+000) (1, 1.42318749427795410000e+000) (2, 1.39030361175537110000e+000) (3, 1.37858688831329350000e+000) (4, 1.36589181423187260000e+000) (5, 1.37892234325408940000e+000) (6, 1.37920117378234860000e+000) (7, 1.37459897994995120000e+000) (8, -1.34377622604370120000e+000) (9, -3.25186467170715330000e+000) (10, 2.13745617866516110000e+000) (11, -2.29991698265075680000e+000) (12, -2.68916845321655270000e+000) (0, -6.39145076274871830000e-001) (1, -6.43897175788879390000e-001) (2, -6.75201594829559330000e-001) (3, -6.51413857936859130000e-001) (4, -6.32408022880554200000e-001) (5, -6.54757320880889890000e-001) (6, -6.46249711513519290000e-001) (7, -6.43725574016571040000e-001) (8, 4.56269383430480960000e-001) (9, 1.97077810764312740000e+000) (10, 7.99197256565093990000e-001) (11, 3.09065628051757810000e+000) (12, -2.39122962951660160000e+000) (13, 3.11995220184326170000e+000) 
